{
  "model_family": "rovik_operational_intelligence",
  "version": "local_2026-06-03T10-16-58-792Z",
  "generated_at": "2026-06-03T10:17:03.479Z",
  "training_rows": 16120,
  "test_rows": 4031,
  "features": {
    "numeric": [
      "priority",
      "distance_km",
      "traffic_level",
      "weather_severity",
      "road_complexity",
      "rider_workload",
      "delivery_density",
      "hour_of_day",
      "day_of_week",
      "predicted_eta_min",
      "promised_eta_min",
      "rider_avg_speed_kmph",
      "rider_idle_ratio",
      "rider_completion_rate",
      "area_delay_rate",
      "area_avg_traffic_level"
    ],
    "categorical": [
      "vehicle_type",
      "area"
    ],
    "categories": {
      "vehicle_type": [
        "bike",
        "ev_scooter",
        "scooter",
        "van"
      ],
      "area": [
        "Adyar",
        "T Nagar"
      ]
    },
    "scaler": {
      "means": [
        3.0002481389578164,
        10.398508064516152,
        0.5014712779156323,
        0.22331625310173797,
        0.49301091811412856,
        3.4067617866004962,
        16.820988213399442,
        11.357009925558312,
        1.4181141439205955,
        44.18163771712159,
        58.88870967741936,
        19.735371898261764,
        0.05265504962778267,
        0.4999997952853869,
        0.27494431761783755,
        0.5009857382134616,
        0.2501240694789082,
        0.25,
        0.24937965260545905,
        0.2504962779156328,
        0.4998759305210918,
        0.5001240694789082
      ],
      "stds": [
        1.4145205635760045,
        5.180388269139845,
        0.2889830185860783,
        0.2642971546652035,
        0.2607240431563703,
        2.077228884007437,
        7.691174019702565,
        7.105053630285394,
        0.8735821788473126,
        20.349298042356125,
        20.806160129337364,
        2.2747029535501615,
        0.00008047970333409528,
        0.0003837671864259219,
        0.020526415710105016,
        0.005140677143118866,
        0.4330843097438032,
        0.4330127018922193,
        0.4326539511802789,
        0.43329884913997335,
        0.49999998460684975,
        0.49999998460684975
      ]
    }
  },
  "selected_models": {
    "eta_prediction": {
      "name": "eta_linear_operational_v1",
      "type": "linear_regression",
      "metrics": {
        "mae_minutes": 2.1282,
        "rmse_minutes": 2.5849
      },
      "model": {
        "type": "linear_regression",
        "weights": [
          -0.002822885307415301,
          2.3966809941724025,
          2.5312671118881247,
          1.6379861841040344,
          1.1598019483382904,
          2.7836042820280014,
          0.10283166130938963,
          0.211917609313982,
          0.3987817878444766,
          11.195751668511562,
          6.747248549115463,
          -0.2116760610672971,
          0.03653870939962607,
          -0.009303530885881903,
          0.07176429535589872,
          0.04498207377012221,
          0.0866309107025166,
          -0.11154519854836306,
          -0.13380963964458495,
          0.1584940026427507,
          -0.007673939679319697,
          0.007673939679319697
        ],
        "bias": 54.24534739453633
      }
    },
    "delay_prediction": {
      "name": "delay_logistic_operational_v1",
      "type": "logistic_regression",
      "metrics": {
        "accuracy": 0.8075
      },
      "model": {
        "type": "logistic_regression",
        "weights": [
          0.04854473671177086,
          0.7516795132067402,
          0.5925141284353372,
          0.2533300198988702,
          0.22505539957427587,
          0.86903612191974,
          -0.18225869437096853,
          -0.03163523321201696,
          -0.5397522416940478,
          0.3679486440916561,
          -0.8010898607230872,
          -0.07815365905157369,
          0.024205956442916073,
          0.032295088238601416,
          -0.048614012026099364,
          -0.03805048633377592,
          -0.025857574300673685,
          -0.028007649736203996,
          -0.04221293209702671,
          0.09598402984179039,
          -0.012339983985942908,
          0.012339983985942908
        ],
        "bias": -1.181033321944533
      }
    }
  },
  "candidates": {
    "eta": [
      {
        "name": "eta_linear_operational_v1",
        "type": "linear_regression",
        "model": {
          "type": "linear_regression",
          "weights": [
            -0.002822885307415301,
            2.3966809941724025,
            2.5312671118881247,
            1.6379861841040344,
            1.1598019483382904,
            2.7836042820280014,
            0.10283166130938963,
            0.211917609313982,
            0.3987817878444766,
            11.195751668511562,
            6.747248549115463,
            -0.2116760610672971,
            0.03653870939962607,
            -0.009303530885881903,
            0.07176429535589872,
            0.04498207377012221,
            0.0866309107025166,
            -0.11154519854836306,
            -0.13380963964458495,
            0.1584940026427507,
            -0.007673939679319697,
            0.007673939679319697
          ],
          "bias": 54.24534739453633
        },
        "metrics": {
          "mae_minutes": 2.1282,
          "rmse_minutes": 2.5849
        }
      },
      {
        "name": "eta_baseline_mean",
        "type": "baseline_mean",
        "model": {
          "type": "baseline_mean",
          "value": 54.24534739454094
        },
        "metrics": {
          "mae_minutes": 17.362,
          "rmse_minutes": 21.4833
        }
      }
    ],
    "delay": [
      {
        "name": "delay_logistic_operational_v1",
        "type": "logistic_regression",
        "model": {
          "type": "logistic_regression",
          "weights": [
            0.04854473671177086,
            0.7516795132067402,
            0.5925141284353372,
            0.2533300198988702,
            0.22505539957427587,
            0.86903612191974,
            -0.18225869437096853,
            -0.03163523321201696,
            -0.5397522416940478,
            0.3679486440916561,
            -0.8010898607230872,
            -0.07815365905157369,
            0.024205956442916073,
            0.032295088238601416,
            -0.048614012026099364,
            -0.03805048633377592,
            -0.025857574300673685,
            -0.028007649736203996,
            -0.04221293209702671,
            0.09598402984179039,
            -0.012339983985942908,
            0.012339983985942908
          ],
          "bias": -1.181033321944533
        },
        "metrics": {
          "accuracy": 0.8075
        }
      },
      {
        "name": "delay_rule_threshold_v1",
        "type": "rule_threshold",
        "model": {
          "type": "rule_threshold"
        },
        "metrics": {
          "accuracy": 0.6996
        }
      }
    ]
  }
}
